digraph Tree {
node [shape=box, style="filled, rounded", color="black", fontname="helvetica"] ;
edge [fontname="helvetica"] ;
0 [label="petal length (cm) <= 2.45\ngini = 0.66\nsamples = 97\nvalue = [49, 41, 60]\nclass = virginica", fillcolor="#f1e9fc"] ;
1 [label="gini = 0.0\nsamples = 32\nvalue = [49, 0, 0]\nclass = setosa", fillcolor="#e58139"] ;
0 -> 1 [labeldistance=2.5, labelangle=45, headlabel="True"] ;
2 [label="petal length (cm) <= 4.75\ngini = 0.48\nsamples = 65\nvalue = [0, 41, 60]\nclass = virginica", fillcolor="#d7c0f7"] ;
0 -> 2 [labeldistance=2.5, labelangle=-45, headlabel="False"] ;
3 [label="gini = 0.0\nsamples = 27\nvalue = [0, 36, 0]\nclass = versicolor", fillcolor="#39e581"] ;
2 -> 3 ;
4 [label="sepal length (cm) <= 6.05\ngini = 0.14\nsamples = 38\nvalue = [0, 5, 60]\nclass = virginica", fillcolor="#8c49e7"] ;
2 -> 4 ;
5 [label="sepal width (cm) <= 3.1\ngini = 0.42\nsamples = 7\nvalue = [0, 3, 7]\nclass = virginica", fillcolor="#b78ef0"] ;
4 -> 5 ;
6 [label="petal length (cm) <= 5.05\ngini = 0.35\nsamples = 6\nvalue = [0, 2, 7]\nclass = virginica", fillcolor="#a572ec"] ;
5 -> 6 ;
7 [label="gini = 0.0\nsamples = 2\nvalue = [0, 0, 4]\nclass = virginica", fillcolor="#8139e5"] ;
6 -> 7 ;
8 [label="petal width (cm) <= 1.75\ngini = 0.48\nsamples = 4\nvalue = [0, 2, 3]\nclass = virginica", fillcolor="#d5bdf6"] ;
6 -> 8 ;
9 [label="gini = 0.0\nsamples = 1\nvalue = [0, 2, 0]\nclass = versicolor", fillcolor="#39e581"] ;
8 -> 9 ;
10 [label="gini = 0.0\nsamples = 3\nvalue = [0, 0, 3]\nclass = virginica", fillcolor="#8139e5"] ;
8 -> 10 ;
11 [label="gini = 0.0\nsamples = 1\nvalue = [0, 1, 0]\nclass = versicolor", fillcolor="#39e581"] ;
5 -> 11 ;
12 [label="petal length (cm) <= 5.0\ngini = 0.07\nsamples = 31\nvalue = [0, 2, 53]\nclass = virginica", fillcolor="#8640e6"] ;
4 -> 12 ;
13 [label="sepal length (cm) <= 6.25\ngini = 0.48\nsamples = 4\nvalue = [0, 2, 3]\nclass = virginica", fillcolor="#d5bdf6"] ;
12 -> 13 ;
14 [label="gini = 0.0\nsamples = 2\nvalue = [0, 0, 3]\nclass = virginica", fillcolor="#8139e5"] ;
13 -> 14 ;
15 [label="gini = 0.0\nsamples = 2\nvalue = [0, 2, 0]\nclass = versicolor", fillcolor="#39e581"] ;
13 -> 15 ;
16 [label="gini = 0.0\nsamples = 27\nvalue = [0, 0, 50]\nclass = virginica", fillcolor="#8139e5"] ;
12 -> 16 ;
}